
\data\
ngram 1=47
ngram 2=77

\1-grams:
-0.5740313	</s>
-99	<s>	0.005212203
-1.477121	@@	0.1480625
-1.954242	a	-0.03056106
-1.255273	aa	0.0008474067
-1.954242	b	-0.04545262
-1.954242	c	-0.04054528
-1.954242	ch	-0.04545262
-1.954242	d	-0.04054528
-1.954242	e	-0.02548154
-1.954242	ee	0.08439345
-1.954242	f	-0.04545262
-1.954242	h	-0.04054528
-1.653213	i	-0.03056106
-1.653213	ii	-0.3424227
-1.954242	iia	0.08439345
-1.653213	j	-0.009876464
-1.352183	j^	-0.5642715
-1.954242	k	-0.03558186
-1.653213	k^	-0.3424227
-1.954242	kr	-0.02548154
-1.954242	l	-0.04545262
-1.653213	m	-0.03056106
-1.954242	m^	0.08439345
-1.954242	n	-0.02548154
-1.255273	n^	-0.6434527
-1.954242	ng	-0.02548154
-1.954242	ng^	0.08439345
-1.954242	o	-0.02548154
-1.954242	oo	-0.04054528
-1.954242	p	-0.02548154
-1.954242	p^	0.08439345
-1.954242	ph	-0.04545262
-1.954242	pr	-0.04545262
-1.954242	r	-0.04545262
-1.954242	s	-0.04054528
-1.954242	t	-0.04545262
-1.653213	t^	-0.3424227
-1.954242	th	-0.04545262
-1.653213	u	-0.03558186
-1.954242	uu	0.08439345
-1.954242	uua	-0.03056106
-1.954242	vva	-0.02548154
-1.954242	w	-0.04545262
-1.653213	w^	-0.3424227
-1.954242	xx	-0.02548154
-1.954242	z	-0.03558186

\2-grams:
-2.341293	<s> b
-2.341293	<s> c
-2.341293	<s> ch
-2.341293	<s> d
-2.341293	<s> f
-2.341293	<s> h
-1.079181	<s> j
-2.341293	<s> k
-2.341293	<s> kr
-2.341293	<s> l
-1.079181	<s> m
-2.341293	<s> n
-2.341293	<s> ng
-2.341293	<s> p
-2.341293	<s> ph
-2.341293	<s> pr
-2.341293	<s> r
-2.341293	<s> s
-2.341293	<s> t
-2.341293	<s> th
-2.341293	<s> w
-2.341293	<s> z
-1.438203	@@ </s>
-1.438203	@@ j^
-1.438203	@@ n^
-0.9610819	a j^
-1.660052	aa j^
-1.660052	aa k^
-1.660052	aa m^
-1.660052	aa p^
-1.660052	aa w^
-0.9610819	b a
-0.9610819	c i
-0.9610819	ch uua
-0.9610819	d ii
-0.9610819	e n^
-0.9610819	ee </s>
-0.9610819	f o
-0.9610819	h i
-1.262112	i k^
-1.262112	i w^
-0.1760913	ii </s>
-0.9610819	iia </s>
-1.262112	j @@
-1.262112	j aa
-0.09691001	j^ </s>
-0.9610819	k @@
-0.1760913	k^ </s>
-0.9610819	kr aa
-0.9610819	l iia
-1.262112	m ii
-1.262112	m u
-0.9610819	m^ </s>
-0.9610819	n aa
-0.07918125	n^ </s>
-0.9610819	ng aa
-0.9610819	ng^ </s>
-0.9610819	o n^
-0.9610819	oo t^
-0.9610819	p aa
-0.9610819	p^ </s>
-0.9610819	ph vva
-0.9610819	pr oo
-0.9610819	r uu
-0.9610819	s u
-0.9610819	t e
-0.1760913	t^ </s>
-0.9610819	th ee
-1.262112	u ng^
-1.262112	u t^
-0.9610819	uu </s>
-0.9610819	uua j^
-0.9610819	vva n^
-0.9610819	w xx
-0.1760913	w^ </s>
-0.9610819	xx n^
-0.9610819	z @@

\end\
