
\data\
ngram 1=72
ngram 2=1595

\1-grams:
-1.548001	</s>
-99	<s>	-3.881714
-2.314196	@	-3.025109
-1.645936	@@	-3.589986
-0.9654814	a	-4.550191
-1.115181	aa	-4.218093
-1.998791	b	-4.039749
-4.285472	bl	-1.748247
-5.586502	br	-1.132624
-1.863457	c	-3.818708
-1.951622	ch	-3.450358
-5.109381	ch^	-1.116461
-1.827439	d	-4.142885
-5.586502	dr	-1.13355
-1.987711	e	-3.81843
-2.156588	ee	-3.315387
-2.822326	f	-2.683308
-4.244079	f^	-2.570463
-4.41041	fr	-1.532433
-2.073817	h	-3.667473
-1.811766	i	-3.739239
-1.4655	ii	-4.207117
-2.313964	iia	-3.560077
-1.941079	j	-3.660635
-1.363188	j^	-4.533488
-1.603417	k	-3.788846
-1.748472	k^	-5.054323
-1.649586	kh	-4.358399
-3.260166	khl	-2.434259
-2.515357	khr	-3.072284
-2.363525	khw	-3.208065
-2.756555	kl	-2.987372
-2.880638	kr	-3.558046
-3.244079	kw	-2.836371
-1.879955	l	-3.69506
-4.188562	l^	-2.211395
-1.562386	m	-4.077173
-1.651146	m^	-3.702015
-1.460468	n	-3.932023
-1.236273	n^	-4.229152
-2.577902	ng	-3.025836
-1.321519	ng^	-4.369189
-1.845193	o	-3.985824
-2.140898	oo	-3.890115
-1.924405	p	-3.627765
-1.902015	p^	-4.131131
-1.86239	ph	-3.718891
-2.842209	phl	-3.154096
-2.660674	phr	-2.84317
-2.779644	pl	-2.697258
-2.356564	pr	-3.065989
-3.142457	q	-2.637197
-2.298029	qq	-3.171887
-1.635748	r	-3.75547
-1.584293	s	-4.326204
-4.545109	s^	-2.16065
-1.809075	t	-3.541143
-1.588853	t^	-3.920342
-1.538177	th	-4.118863
-4.331229	thr	-1.446892
-3.053747	tr	-3.232126
-2.029597	u	-3.343783
-2.063536	uu	-3.148457
-2.193102	uua	-3.084891
-2.131505	v	-3.974125
-2.314196	vv	-3.006164
-2.197336	vva	-3.148304
-1.90508	w	-4.036625
-1.940687	w^	-3.706171
-2.499075	x	-2.756634
-2.07076	xx	-3.227775
-1.794881	z	-3.846087

\2-grams:
-2.561539	<s> @
-1.895645	<s> b
-3.034443	<s> bl
-1.543116	<s> c
-1.481153	<s> ch
-1.618704	<s> d
-2.658449	<s> f
-1.914808	<s> h
-1.488432	<s> j
-1.067848	<s> k
-0.9638435	<s> kh
-2.959479	<s> khl
-1.837263	<s> khr
-1.871343	<s> khw
-2.181327	<s> kl
-2.33969	<s> kr
-3.73763	<s> kw
-1.33109	<s> l
-1.140483	<s> m
-1.114381	<s> n
-2.357419	<s> ng
-1.454329	<s> p
-1.32433	<s> ph
-2.23248	<s> phl
-1.607296	<s> phr
-1.901939	<s> pl
-2.009276	<s> pr
-1.453199	<s> r
-1.292805	<s> s
-1.196675	<s> t
-1.314384	<s> th
-3.73763	<s> thr
-3.03866	<s> tr
-1.485992	<s> w
-1.312748	<s> z
-2.576111	@ </s>
-2.974051	@ b
-2.233688	@ c
-2.09899	@ ch
-2.576111	@ d
-2.233688	@ h
-1.932658	@ j
-0.6316282	@ j^
-1.89487	@ k
-1.673021	@ k^
-2.161138	@ kh
-3.007051	@ khr
-2.070961	@ khw
-3.007051	@ kl
-2.320838	@ l
-3.007051	@ l^
-1.974051	@ m
-1.241657	@ m^
-2.070961	@ n
-1.185176	@ n^
-3.007051	@ ng
-0.3305982	@ ng^
-2.270864	@ p
-2.161138	@ p^
-2.233688	@ ph
-3.007051	@ phr
-2.270864	@ pl
-2.673021	@ pr
-2.233688	@ r
-2.044632	@ s
-2.371991	@ t
-3.007051	@ t^
-2.161138	@ th
-2.275081	@ w
-2.576111	@ z
-2.423345	@@ </s>
-2.01244	@@ b
-1.743202	@@ c
-2.308391	@@ ch
-1.563461	@@ d
-3.242889	@@ f
-2.754718	@@ f^
-2.350795	@@ h
-1.978071	@@ j
-1.379566	@@ j^
-2.007361	@@ k
-1.289613	@@ k^
-1.570791	@@ kh
-2.937643	@@ khr
-2.61964	@@ khw
-2.827916	@@ kl
-3.673829	@@ kr
-2.41038	@@ l
-1.520255	@@ m
-1.556253	@@ m^
-1.706331	@@ n
-0.8332941	@@ n^
-3.242889	@@ ng
-0.5232264	@@ ng^
-2.754718	@@ o
-1.613479	@@ p
-1.157956	@@ p^
-1.929022	@@ ph
-2.373657	@@ phl
-2.599437	@@ phr
-3.365012	@@ pl
-2.494701	@@ pr
-1.364367	@@ r
-1.68418	@@ s
-3.640829	@@ s^
-1.713972	@@ t
-1.74596	@@ t^
-1.900466	@@ th
-3.673829	@@ thr
-3.673829	@@ tr
-2.339799	@@ w
-3.242889	@@ w^
-1.748734	@@ z
-1.897108	a </s>
-2.097638	a b
-4.353354	a br
-2.269202	a c
-1.981898	a ch
-1.792724	a d
-3.445293	a f
-2.139941	a h
-1.871648	a j
-0.5648603	a j^
-1.780025	a k
-1.623125	a k^
-2.398668	a kh
-3.617167	a khl
-3.507441	a khr
-4.044537	a khw
-3.417264	a kl
-3.434243	a kr
-4.353354	a kw
-1.967207	a l
-1.687897	a m
-1.13227	a m^
-1.444425	a n
-0.942047	a n^
-3.299165	a ng
-1.143973	a ng^
-3.434243	a o
-2.134246	a p
-1.281734	a p^
-1.897108	a ph
-4.353354	a phl
-2.466048	a phr
-3.475256	a pl
-3.030319	a pr
-1.409997	a r
-1.861716	a s
-1.748645	a t
-1.34931	a t^
-1.672971	a th
-3.434243	a tr
-3.0086	a uua
-1.872421	a w
-1.31346	a w^
-2.472165	a z
-1.931036	aa </s>
-3.240916	aa aa
-2.128942	aa b
-1.611027	aa c
-1.998609	aa ch
-2.056392	aa d
-2.799267	aa f
-3.568275	aa f^
-1.817189	aa h
-2.001543	aa j
-0.9360709	aa j^
-1.584874	aa k
-1.28895	aa k^
-1.707937	aa kh
-4.203335	aa khl
-2.927297	aa khr
-2.686035	aa khw
-3.267245	aa kl
-3.471365	aa kr
-4.203335	aa kw
-1.948921	aa l
-3.894518	aa l^
-1.61343	aa m
-1.019886	aa m^
-1.620719	aa n
-0.6997776	aa n^
-3.216093	aa ng
-0.893414	aa ng^
-2.078668	aa p
-2.004498	aa p^
-2.08755	aa ph
-4.170335	aa phl
-2.994244	aa phr
-3.471365	aa pl
-2.747089	aa pr
-1.695391	aa r
-1.668591	aa s
-3.772395	aa s^
-2.283844	aa t
-1.31816	aa t^
-1.494099	aa th
-3.772395	aa tr
-2.104009	aa w
-1.435135	aa w^
-2.094788	aa z
-2.587823	b @
-1.181283	b @@
-0.8726558	b a
-0.2760693	b aa
-2.546431	b e
-3.010976	b ee
-1.934611	b i
-1.944371	b ii
-2.110702	b iia
-1.229888	b o
-1.77491	b oo
-2.508642	b q
-1.985763	b qq
-1.295567	b u
-1.87182	b uu
-1.863547	b uua
-3.286793	b v
-2.441695	b vva
-2.286793	b x
-1.243431	b xx
-1.217484	bl @
-0.3313727	bl aa
-0.5142974	bl ii
-0.819544	bl uu
-0.03300026	br ee
-3.146445	c @
-1.62987	c @@
-0.326395	c a
-0.6551056	c aa
-1.799012	c e
-1.727656	c ee
-1.236153	c i
-1.280812	c ii
-2.121232	c iia
-1.361564	c o
-2.325351	c oo
-3.455262	c qq
-1.431035	c u
-2.769049	c uu
-3.455262	c uua
-1.487763	c v
-3.422261	c x
-2.015721	c xx
-2.220007	ch @
-1.559434	ch @@
-0.4796448	ch a
-0.6088563	ch aa
-1.333951	ch e
-2.680738	ch ee
-1.65271	ch i
-1.242284	ch ii
-2.379708	ch iia
-1.35168	ch o
-2.488853	ch oo
-1.936011	ch qq
-1.312762	ch u
-2.936011	ch uu
-1.042804	ch uua
-1.695462	ch vv
-1.436324	ch vva
-0.5101215	ch^ </s>
-0.5101215	ch^ kl
-0.5101215	ch^ l
-2.584407	d @
-1.9154	d @@
-0.7405512	d a
-0.4735925	d aa
-1.316453	d e
-1.626959	d i
-1.074756	d ii
-1.630164	d iia
-2.584407	d ng^
-2.255348	d o
-1.290676	d oo
-2.229019	d q
-1.975168	d qq
-2.573357	d r
-2.573357	d s
-2.39877	d u
-1.230298	d uu
-1.183006	d uua
-2.459468	d v
-2.719105	d vv
-1.649908	d vva
-1.296605	d xx
-0.03300026	dr iia
-2.414267	e @@
-2.601408	e e
-1.045106	e k^
-2.414267	e kh
-3.333378	e l^
-1.376099	e m^
-0.1342441	e n^
-2.021625	e ng^
-2.902438	e p
-1.885405	e p^
-1.06485	e t^
-2.597192	e th
-3.333378	e w
-1.999348	e w^
-2.478566	ee </s>
-1.799341	ee c
-2.529719	ee ch
-2.052598	ee d
-3.164779	ee h
-3.164779	ee j
-2.318866	ee k
-1.215325	ee k^
-2.428592	ee kh
-3.131779	ee khw
-1.031408	ee l
-3.164779	ee l^
-1.970411	ee m
-2.245668	ee m^
-1.955688	ee n
-1.613265	ee n^
-0.593331	ee ng^
-1.955688	ee o
-2.855962	ee p
-1.459681	ee p^
-2.855962	ee ph
-2.733839	ee q
-3.164779	ee qq
-1.684621	ee r
-1.779596	ee s
-2.478566	ee t
-0.4237833	ee t^
-2.391416	ee th
-2.318866	ee w
-2.131779	ee w^
-1.927659	ee z
-1.613576	f </s>
-1.369353	f @@
-0.4743812	f a
-0.710812	f aa
-2.101747	f b
-1.613576	f ee
-1.759324	f f
-1.309355	f i
-2.532687	f ii
-2.101747	f iia
-1.596597	f o
-1.897627	f oo
-2.532687	f qq
-1.613576	f t
-1.613576	f th
-2.101747	f tr
-1.220933	f u
-2.198657	f uu
-1.596597	f v
-2.101747	f vv
-2.22387	f vva
-1.613576	f w
-2.532687	f x
-1.209652	f xx
-1.394728	f^ </s>
-1.394728	f^ d
-1.394728	f^ f
-1.060698	f^ j
-0.4756166	f^ l
-1.394728	f^ m
-0.4756166	f^ r
-1.394728	f^ t
-1.394728	f^ z
-1.209092	fr @@
-1.209092	fr i
-0.4729048	fr ii
-0.2899801	fr u
-1.31996	h @
-1.840986	h @@
-0.4973056	h a
-0.420013	h aa
-1.01893	h e
-1.456179	h ee
-2.170662	h i
-3.212054	h iia
-1.416174	h o
-2.558842	h oo
-3.245055	h qq
-2.132873	h r
-3.245055	h t^
-2.513084	h u
-2.433903	h uu
-1.772722	h uua
-3.212054	h v
-3.245055	h vv
-1.788808	h x
-1.981605	h xx
-2.452735	i </s>
-1.753765	i b
-1.788183	i c
-1.289233	i ch
-3.506925	i ch^
-2.141486	i d
-2.628827	i f
-3.473925	i f^
-2.195171	i h
-1.840456	i j
-1.489397	i k
-1.547068	i k^
-2.661011	i kh
-2.343591	i khr
-3.506925	i kl
-3.172895	i kr
-2.131502	i l
-2.050679	i m
-2.050679	i m^
-2.243476	i n
-0.8553537	i n^
-0.9982535	i ng^
-2.871865	i o
-2.628827	i p
-1.042561	i p^
-1.71805	i ph
-3.506925	i phr
-2.774955	i pr
-1.996803	i r
-1.560111	i s
-3.473925	i s^
-2.112197	i t
-0.5134539	i t^
-1.409467	i th
-1.955411	i w
-1.737528	i w^
-2.774955	i x
-2.519682	i z
-1.138032	ii </s>
-1.809904	ii b
-2.934517	ii bl
-1.431462	ii c
-1.727207	ii ch
-1.665292	ii d
-2.779236	ii f
-1.984938	ii h
-1.690295	ii j
-1.340621	ii k
-1.398203	ii k^
-1.248338	ii kh
-2.381296	ii khl
-1.883612	ii khr
-1.63452	ii khw
-2.235168	ii kl
-2.741447	ii kr
-2.891209	ii kw
-1.653311	ii l
-0.9773955	ii m
-2.842905	ii m^
-1.055705	ii n
-2.468446	ii n^
-2.014448	ii ng
-2.934517	ii o
-1.518514	ii p
-2.336329	ii p^
-1.490215	ii ph
-3.820628	ii phl
-2.508874	ii phr
-2.405655	ii pl
-1.909471	ii pr
-1.247177	ii r
-1.107979	ii s
-3.853629	ii s^
-1.60183	ii t
-2.240845	ii t^
-1.328567	ii th
-3.218568	ii tr
-1.428811	ii w
-1.386059	ii z
-1.8951	iia </s>
-2.271095	iia c
-2.321069	iia ch
-2.321069	iia d
-2.19613	iia h
-2.372221	iia j
-2.321069	iia k
-1.335792	iia k^
-2.271095	iia kh
-3.007282	iia khw
-2.372221	iia l
-2.576341	iia m
-1.551036	iia m^
-2.321069	iia n
-0.4780438	iia n^
-3.007282	iia ng
-0.7349819	iia ng^
-2.974281	iia p
-1.356233	iia p^
-2.576341	iia ph
-2.271095	iia pr
-2.321069	iia r
-2.698465	iia s
-2.19613	iia t
-1.306828	iia t^
-2.673251	iia th
-2.974281	iia w
-0.6551753	iia w^
-2.161368	iia z
-1.706885	j @
-1.546033	j @@
-0.7957575	j a
-0.451612	j aa
-1.482051	j e
-3.044344	j ee
-1.500276	j i
-1.43156	j ii
-2.692161	j iia
-1.298099	j o
-1.581946	j oo
-2.06662	j q
-2.459263	j qq
-1.262588	j u
-0.8031709	j uu
-3.345374	j uua
-2.36765	j v
-1.956208	j vv
-2.743314	j vva
-3.345374	j x
-1.820329	j xx
-0.7356623	j^ </s>
-1.212219	j^ b
-1.725056	j^ c
-1.55498	j^ ch
-1.3022	j^ d
-2.632302	j^ f
-3.955336	j^ fr
-1.716861	j^ h
-1.551268	j^ j
-1.231255	j^ k
-1.375177	j^ kh
-2.880944	j^ khl
-2.336875	j^ khr
-2.035846	j^ khw
-2.320276	j^ kl
-2.278883	j^ kr
-2.410453	j^ kw
-1.55498	j^ l
-1.190345	j^ m
-1.232583	j^ n
-2.00065	j^ ng
-3.955336	j^ oo
-1.53673	j^ p
-1.604273	j^ ph
-3.269124	j^ phl
-2.417186	j^ phr
-2.667064	j^ pl
-2.053104	j^ pr
-1.334064	j^ r
-1.302721	j^ s
-1.483794	j^ t
-1.240191	j^ th
-2.808393	j^ tr
-1.486174	j^ w
-1.558724	j^ z
-2.98313	k @
-0.8379335	k @@
-0.6198941	k a
-0.4661981	k aa
-2.621402	k e
-2.38107	k ee
-1.285029	k i
-1.148074	k ii
-1.727857	k iia
-1.893225	k o
-1.568157	k oo
-1.479339	k qq
-1.752681	k u
-2.807039	k uu
-2.320372	k uua
-3.6821	k v
-2.837002	k vva
-2.903949	k x
-1.625195	k xx
-1.334454	k^ </s>
-1.798211	k^ b
-1.295536	k^ c
-1.584331	k^ ch
-1.55857	k^ d
-2.176846	k^ f
-1.732394	k^ h
-2.652462	k^ ii
-1.62476	k^ j
-1.060729	k^ k
-1.163825	k^ kh
-2.835387	k^ khl
-1.7358	k^ khr
-2.132034	k^ khw
-2.40824	k^ kl
-2.693476	k^ kr
-2.377206	k^ kw
-1.409851	k^ l
-1.298025	k^ m
-1.147639	k^ n
-1.92579	k^ ng
-2.839604	k^ ng^
-1.594091	k^ p
-1.549569	k^ ph
-2.663512	k^ phl
-2.760422	k^ phr
-2.798211	k^ pl
-1.756818	k^ pr
-1.246318	k^ r
-0.9469527	k^ s
-1.338544	k^ t
-1.215322	k^ th
-2.835387	k^ thr
-2.652462	k^ tr
-1.427984	k^ w
-1.666417	k^ z
-1.88479	kh @
-0.5442936	kh @@
-0.6683558	kh a
-0.9109272	kh aa
-2.858688	kh ch
-2.092771	kh e
-2.181994	kh ee
-1.524569	kh i
-2.595446	kh ii
-1.929269	kh iia
-0.8493783	kh o
-2.733749	kh oo
-2.221865	kh qq
-2.750728	kh s
-1.632517	kh u
-2.275111	kh uu
-1.715152	kh uua
-1.369667	kh v
-1.289509	kh vv
-2.750728	kh vva
-2.369667	kh x
-2.325085	kh xx
-1.765296	khl @
-0.4228733	khl @@
-1.668386	khl a
-0.6952581	khl aa
-1.668386	khl e
-1.790509	khl ii
-1.325963	khl iia
-1.325963	khl u
-1.180215	khl v
-2.066326	khl vv
-1.005628	khl vva
-2.099326	khl x
-1.180215	khl xx
-1.599155	khr @
-1.023198	khr @@
-0.4298725	khr a
-1.243767	khr aa
-2.076276	khr e
-1.661303	khr ee
-1.218944	khr i
-1.889135	khr ii
-1.900185	khr iia
-2.07206	khr o
-1.231178	khr oo
-2.808247	khr u
-1.678336	khr uu
-1.352	khr uua
-0.90309	khr v
-1.122034	khr vva
-2.021706	khw a
-0.01926995	khw aa
-2.957796	khw ee
-1.748705	khw m
-2.924796	khw oo
-2.038685	khw r
-2.526856	khw w
-2.924796	khw xx
-2.56384	kl @
-0.7145985	kl a
-0.3133558	kl aa
-2.22981	kl i
-2.1329	kl iia
-2.1329	kl o
-2.56384	kl oo
-0.6586835	kl u
-1.340508	kl uua
-2.255023	kl vv
-1.62775	kl vva
-1.433896	kr @@
-0.2061447	kr a
-2.01368	kr aa
-1.708433	kr ee
-1.069197	kr i
-2.11059	kr ii
-2.44462	kr iia
-1.079181	kr o
-1.708433	kr oo
-2.41162	kr qq
-1.168582	kr u
-1.433896	kr x
-2.44462	kr xx
-0.007896481	kw aa
-2.078323	kw e
-2.078323	kw xx
-3.40637	l @
-1.590129	l @@
-0.792528	l a
-0.7841558	l aa
-1.154732	l e
-1.832339	l ee
-1.218849	l i
-1.99983	l ii
-1.951525	l iia
-1.249518	l o
-1.658182	l oo
-3.00843	l p^
-1.39143	l qq
-2.520259	l t^
-1.915008	l u
-1.943972	l uu
-2.054187	l uua
-2.364977	l v
-2.292427	l vv
-1.361047	l vva
-0.775942	l x
-0.9742026	l xx
-1.447158	l^ </s>
-0.5610468	l^ c
-1.480158	l^ k
-1.447158	l^ l
-0.5610468	l^ m
-1.480158	l^ s
-0.5610468	l^ t^
-1.480158	l^ th
-3.020433	m </s>
-2.794201	m @
-2.056167	m @@
-0.5485431	m a
-0.7954801	m aa
-2.983257	m e
-2.007617	m ee
-1.878522	m i
-0.5176039	m ii
-2.983257	m iia
-2.945469	m j
-1.648073	m o
-1.077216	m oo
-2.411866	m qq
-2.21847	m u
-1.684206	m uu
-2.662922	m uua
-2.276462	m v
-2.042379	m vv
-1.299555	m vva
-1.967745	m xx
-2.837509	m z
-1.376054	m^ </s>
-2.748819	m^ aa
-1.726445	m^ b
-3.667931	m^ bl
-1.561212	m^ c
-1.62633	m^ ch
-1.609625	m^ d
-2.856779	m^ f
-1.514356	m^ h
-1.624207	m^ j
-1.315824	m^ k
-1.098372	m^ kh
-2.894568	m^ khl
-2.273203	m^ khr
-1.991478	m^ khw
-2.273203	m^ kl
-2.63493	m^ kr
-2.935961	m^ kw
-1.464669	m^ l
-1.13731	m^ m
-0.9984426	m^ n
-1.774593	m^ ng
-1.412214	m^ p
-1.270379	m^ ph
-2.379658	m^ phl
-2.520987	m^ phr
-2.203567	m^ pl
-1.962833	m^ pr
-1.123047	m^ r
-1.063804	m^ s
-1.412214	m^ t
-1.299473	m^ th
-3.667931	m^ thr
-3.63493	m^ tr
-1.628464	m^ w
-1.439031	m^ z
-1.638928	n @
-1.479663	n @@
-0.3298391	n a
-0.8507551	n aa
-2.895617	n e
-2.607553	n ee
-1.80592	n i
-0.7803007	n ii
-2.634705	n iia
-2.13484	n o
-2.444825	n oo
-2.092643	n qq
-1.955805	n u
-1.895617	n uu
-2.126066	n uua
-1.217581	n v
-2.005492	n vva
-1.967704	n x
-1.799731	n xx
-1.216584	n^ </s>
-1.603808	n^ b
-3.651472	n^ bl
-1.481797	n^ c
-1.665596	n^ ch
-1.228882	n^ d
-4.082412	n^ dr
-2.634439	n^ f
-1.570845	n^ h
-1.477703	n^ j
-1.196627	n^ k
-1.274166	n^ kh
-2.697229	n^ khl
-2.401052	n^ khr
-2.274895	n^ khw
-2.463951	n^ kl
-2.253532	n^ kr
-2.697229	n^ kw
-1.458904	n^ l
-1.252144	n^ m
-1.025337	n^ n
-2.401052	n^ ng
-1.501022	n^ p
-1.423072	n^ ph
-2.055976	n^ phl
-2.426162	n^ phr
-2.087991	n^ pl
-1.871875	n^ pr
-3.163301	n^ qq
-1.457235	n^ r
-1.238172	n^ s
-1.426163	n^ t
-3.174351	n^ t^
-1.042518	n^ th
-3.748382	n^ thr
-2.250071	n^ tr
-1.623715	n^ w
-1.26266	n^ z
-2.746911	ng @
-1.827799	ng @@
-0.9542425	ng a
-0.275368	ng aa
-2.746911	ng i
-2.438094	ng ii
-1.672518	ng iia
-1.075421	ng o
-2.438094	ng oo
-0.7844914	ng q
-1.935759	ng qq
-2.746911	ng u
-2.746911	ng uu
-1.868812	ng uua
-1.973548	ng vva
-1.634729	ng xx
-0.8787332	ng^ </s>
-1.83369	ng^ b
-3.997024	ng^ bl
-1.533465	ng^ c
-1.531054	ng^ ch
-1.554091	ng^ d
-2.592956	ng^ f
-3.15111	ng^ fr
-1.92461	ng^ h
-1.671768	ng^ j
-1.263753	ng^ k
-1.232435	ng^ kh
-3.361964	ng^ khl
-1.909028	ng^ khr
-1.861933	ng^ khw
-2.022016	ng^ kl
-2.419956	ng^ kr
-2.74654	ng^ kw
-1.647006	ng^ l
-1.211207	ng^ m
-0.9699267	ng^ n
-1.92461	ng^ ng
-3.997024	ng^ ng^
-1.65333	ng^ p
-1.491267	ng^ ph
-3.15111	ng^ phl
-2.426205	ng^ phr
-2.438979	ng^ pl
-1.872357	ng^ pr
-1.336146	ng^ r
-1.232435	ng^ s
-1.38424	ng^ t
-1.16641	ng^ th
-3.997024	ng^ thr
-3.118926	ng^ tr
-1.696852	ng^ w
-1.214674	ng^ z
-2.663701	o d
-3.474852	o k
-1.080124	o k^
-2.555741	o m
-0.9034041	o m^
-2.742882	o n
-0.376833	o n^
-0.8643604	o ng^
-1.156295	o p^
-2.555741	o pr
-0.8243276	o t^
-3.043912	o th
-2.839792	o w^
-2.464128	o z
-2.751279	oo </s>
-1.906181	oo b
-2.408856	oo c
-1.581017	oo ch
-2.496006	oo d
-2.263108	oo f
-2.848189	oo h
-1.987851	oo j
-0.9969308	oo j^
-1.664919	oo k
-1.31037	oo k^
-2.171495	oo kh
-2.263108	oo khl
-2.263108	oo kl
-2.171495	oo kr
-1.769008	oo l
-1.433216	oo m
-1.837465	oo m^
-1.882047	oo n
-1.686821	oo n^
-3.182219	oo ng
-0.4442112	oo ng^
-1.958887	oo o
-2.751279	oo p
-2.371068	oo p^
-2.751279	oo ph
-3.182219	oo pr
-1.816781	oo r
-2.371068	oo s
-2.107826	oo t
-0.929111	oo t^
-2.088521	oo th
-1.040316	oo w
-2.088521	oo w^
-2.274158	oo z
-1.781566	p @
-2.620987	p @@
-0.4880294	p a
-1.620987	p aa
-0.3891472	p e
-1.26098	p i
-1.463723	p ii
-3.085533	p iia
-1.764753	p o
-3.06032	p oo
-1.171018	p qq
-2.96341	p s
-1.87705	p u
-2.708138	p uu
-2.171018	p uua
-3.085533	p v
-3.085533	p vv
-1.628956	p xx
-1.502481	p^ </s>
-1.728131	p^ b
-1.723384	p^ c
-1.723384	p^ ch
-1.388319	p^ d
-1.962896	p^ f
-3.419142	p^ fr
-1.379676	p^ h
-2.500031	p^ i
-1.938984	p^ j
-1.180667	p^ k
-1.259037	p^ kh
-2.500031	p^ khl
-1.806358	p^ khr
-1.742689	p^ khw
-2.573229	p^ kl
-2.456723	p^ kr
-3.386142	p^ kw
-1.704901	p^ l
-1.394916	p^ m
-1.02253	p^ n
-2.386142	p^ ng
-1.319816	p^ p
-1.459285	p^ ph
-2.04372	p^ phl
-2.687172	p^ phr
-3.110325	p^ pl
-1.597267	p^ pr
-1.31426	p^ r
-0.8559424	p^ s
-1.403871	p^ t
-1.299782	p^ th
-2.500031	p^ tr
-1.441659	p^ w
-1.36289	p^ z
-1.811117	ph @
-1.510087	ph @@
-0.6615975	ph a
-0.7735934	ph aa
-1.712094	ph e
-1.811117	ph ee
-1.177156	ph i
-2.494482	ph ii
-1.898856	ph iia
-0.8995048	ph o
-1.450773	ph oo
-3.025961	ph q
-1.313311	ph qq
-2.53779	ph th
-1.795512	ph u
-0.9690561	ph uu
-2.145147	ph uua
-2.122871	ph v
-1.703742	ph vv
-1.211713	ph vva
-2.64575	ph x
-1.83844	ph xx
-2.444825	phl @@
-1.631912	phl a
-1.569764	phl aa
-0.04256382	phl ee
-2.477825	phl i
-2.444825	phl oo
-1.541735	phl qq
-2.477825	phl xx
-0.8076062	phr @
-1.351674	phr @@
-0.797919	phr a
-0.9144245	phr aa
-1.744317	phr c
-1.440096	phr i
-1.852277	phr ii
-2.354611	phr o
-0.4528914	phr u
-1.118544	phr v
-1.78533	phr xx
-1.77352	pl @
-1.814913	pl @@
-1.911823	pl a
-0.6505603	pl aa
-2.546883	pl e
-2.546883	pl ii
-0.5844643	pl iia
-2.212853	pl o
-0.5896039	pl u
-1.453185	pl uu
-1.627772	pl vva
-0.8464302	pl xx
-2.964966	pr @@
-0.1023408	pr a
-1.259868	pr aa
-2.656149	pr ee
-2.630936	pr ii
-1.835056	pr iia
-2.045855	pr kh
-2.534026	pr o
-1.102662	pr oo
-1.570238	pr u
-2.931966	pr uua
-1.977724	pr v
-2.329906	pr xx
-1.320838	q </s>
-1.382986	q b
-1.79796	q c
-1.309788	q f
-1.492713	q j
-2.2289	q k
-1.79796	q kh
-1.309788	q l
-1.116718	q m
-2.2289	q m^
-0.2368583	q n^
-1.89487	q ng^
-2.2289	q p^
-2.2289	q r
-1.309788	q t
-2.2289	q w
-1.773077	qq </s>
-2.689531	qq b
-2.990561	qq c
-2.714744	qq ch
-2.714744	qq d
-3.023561	qq f
-2.10445	qq f^
-2.990561	qq h
-3.023561	qq j
-1.053545	qq j^
-2.291591	qq k
-1.250198	qq k^
-1.829193	qq kh
-2.990561	qq khw
-2.291591	qq l
-2.177648	qq m
-0.6591336	qq m^
-2.012837	qq n
-0.9024248	qq n^
-1.648138	qq ng^
-2.250198	qq p
-2.036318	qq p^
-1.969372	qq ph
-2.689531	qq pr
-1.929863	qq r
-2.061142	qq s
-2.388501	qq t
-0.4874514	qq t^
-1.949168	qq th
-1.829193	qq w
-2.177648	qq w^
-3.023561	qq z
-2.234799	r @
-1.265957	r @@
-0.4063627	r a
-0.8719836	r aa
-2.011284	r e
-2.871622	r ee
-1.620389	r i
-1.654138	r ii
-1.281486	r iia
-1.534162	r o
-1.497484	r oo
-1.810924	r qq
-1.937966	r u
-1.344422	r uu
-1.600555	r uua
-2.269562	r v
-1.335906	r vv
-1.149399	r vva
-1.639049	r xx
-2.998986	s @
-1.057241	s @@
-0.5236266	s a
-0.8145546	s aa
-1.892612	s e
-1.53191	s ee
-1.005379	s i
-1.449319	s ii
-1.691448	s iia
-3.735172	s j
-2.816061	s khr
-2.390418	s khw
-2.924021	s m
-1.301634	s o
-2.116711	s oo
-2.816061	s p^
-2.526081	s qq
-1.321961	s u
-1.57832	s uu
-1.584901	s uua
-1.183658	s v
-1.706537	s vv
-2.747929	s vva
-2.247327	s xx
-0.9624192	s^ </s>
-0.9624192	s^ ch
-0.9624192	s^ f
-0.9624192	s^ j
-0.6536021	s^ kh
-0.9624192	s^ s
-0.9294189	s^ t
-0.9624192	s^ tr
-0.9795397	t @
-0.8227745	t @@
-0.8771322	t a
-0.8537374	t aa
-1.795228	t e
-2.777499	t ee
-1.123323	t i
-1.843001	t ii
-2.114742	t iia
-3.078529	t j
-1.964586	t m
-1.201158	t o
-2.045105	t oo
-1.429194	t qq
-2.601408	t t
-2.362526	t u
-1.463632	t uu
-1.227271	t uua
-2.175439	t v
-1.592808	t vv
-1.843001	t vva
-2.164716	t x
-1.085534	t xx
-1.231409	t^ </s>
-2.811423	t^ @
-1.726723	t^ b
-1.310145	t^ c
-1.500254	t^ ch
-1.517122	t^ d
-1.915779	t^ f
-1.745711	t^ h
-3.421718	t^ ii
-1.642539	t^ j
-1.262966	t^ k
-1.216809	t^ kh
-2.600625	t^ khl
-2.536166	t^ khr
-1.901654	t^ khw
-2.536166	t^ kl
-2.743292	t^ kr
-2.811423	t^ kw
-1.505804	t^ l
-1.216809	t^ m
-1.212523	t^ n
-3.730535	t^ n^
-2.567201	t^ ng
-1.627497	t^ p
-1.652211	t^ ph
-2.011793	t^ phl
-2.442262	t^ phr
-2.957172	t^ pl
-1.945486	t^ pr
-1.500254	t^ r
-1.149145	t^ s
-1.394338	t^ t
-0.7952595	t^ th
-2.007338	t^ tr
-1.607629	t^ w
-2.794445	t^ xx
-1.298727	t^ z
-2.617466	th @
-1.63553	th @@
-0.5326915	th a
-1.017018	th aa
-2.332827	th e
-1.628874	th ee
-1.513536	th i
-0.4238265	th ii
-1.887462	th iia
-2.861689	th m
-2.089789	th o
-2.44677	th oo
-2.902702	th q
-3.04883	th qq
-1.417386	th u
-1.784012	th uu
-1.921725	th uua
-1.530316	th v
-2.222755	th vv
-2.872739	th vva
-3.044614	th x
-1.776989	th xx
-0.2899801	thr @@
-1.209092	thr a
-0.4771213	thr i
-1.209092	thr xx
-0.614948	tr a
-1.042664	tr aa
-2.232996	tr ee
-0.4848081	tr ii
-1.454845	tr iia
-0.6589649	tr o
-2.265996	tr u
-1.579784	tr uu
-1.329906	tr uua
-2.654778	u </s>
-1.850298	u b
-2.41174	u c
-3.256838	u ch
-3.256838	u ch^
-1.876627	u d
-2.516475	u f
-3.256838	u h
-2.553652	u j
-2.0138	u j^
-2.353748	u k
-0.6999327	u k^
-2.381777	u kh
-3.289838	u khr
-3.289838	u khw
-3.289838	u kr
-1.512545	u l
-2.381777	u m
-0.8623863	u m^
-2.235649	u n
-0.9472078	u n^
-0.7647763	u ng^
-2.557868	u p
-1.682807	u p^
-2.159928	u ph
-3.289838	u phr
-2.557868	u pr
-1.671377	u r
-2.353748	u s
-3.289838	u s^
-2.654778	u t
-0.6898116	u t^
-2.159928	u th
-2.557868	u w
-3.256838	u z
-1.584617	uu </s>
-2.825166	uu @
-1.339445	uu b
-1.599857	uu c
-1.660814	uu ch
-1.574746	uu d
-2.181714	uu f
-1.870924	uu h
-1.463439	uu j
-1.537365	uu k
-1.126196	uu k^
-1.610322	uu kh
-3.256107	uu khl
-3.256107	uu khr
-2.223106	uu khw
-2.947289	uu kl
-2.378008	uu kr
-1.698062	uu l
-1.320016	uu m
-2.092773	uu m^
-0.9308503	uu n
-1.245383	uu n^
-2.348045	uu ng
-1.478813	uu ng^
-3.256107	uu o
-1.890668	uu p
-1.594718	uu p^
-1.724796	uu ph
-2.947289	uu phr
-2.51992	uu pl
-1.955935	uu pr
-1.643323	uu r
-1.110837	uu s
-1.660814	uu t
-1.314621	uu t^
-1.13853	uu th
-3.256107	uu thr
-2.181714	uu tr
-2.825166	uu uu
-1.880684	uu w
-1.494753	uu z
-1.803737	uua </s>
-2.792742	uua b
-2.280859	uua c
-2.817955	uua ch
-2.164353	uua d
-2.280859	uua h
-1.417078	uua j
-0.6396895	uua j^
-2.21871	uua k
-1.713561	uua k^
-1.8266	uua kh
-2.280859	uua khr
-2.817955	uua khw
-3.126772	uua kr
-3.126772	uua kw
-1.751349	uua l
-1.078831	uua m
-1.156756	uua m^
-1.732044	uua n
-0.6906512	uua n^
-1.029314	uua ng^
-1.543543	uua p
-1.815018	uua p^
-2.139529	uua ph
-3.093772	uua phr
-2.390585	uua pr
-1.917681	uua r
-2.248674	uua s
-2.21871	uua t
-1.365418	uua t^
-1.732044	uua th
-3.126772	uua w
-1.732044	uua z
-2.878303	v d
-2.375968	v h
-2.375968	v j
-0.7366478	v k^
-2.55206	v m^
-2.455149	v n
-0.8928567	v n^
-0.1984318	v ng^
-2.375968	v p
-2.75618	v pl
-1.477426	v t^
-2.275081	vv </s>
-1.932658	vv b
-2.019808	vv c
-2.233688	vv ch
-1.877141	vv d
-2.576111	vv f
-1.843717	vv h
-1.695297	vv j
-1.15781	vv k
-1.455537	vv kh
-1.662297	vv khr
-1.612323	vv khw
-2.576111	vv kl
-2.974051	vv kr
-1.769931	vv l
-1.350802	vv m
-1.59384	vv m^
-1.320838	vv n
-0.5101579	vv n^
-2.576111	vv ng
-1.783719	vv p
-1.89487	vv p^
-1.641612	vv ph
-3.007051	vv phl
-2.08794	vv phr
-2.019808	vv pl
-2.320838	vv pr
-1.756567	vv r
-1.27076	vv s
-1.695297	vv t
-1.641612	vv t^
-1.511653	vv th
-3.007051	vv tr
-1.311293	vv w
-1.340582	vv z
-2.348482	vva </s>
-2.690905	vva b
-2.047452	vva c
-2.185755	vva ch
-2.185755	vva d
-3.088845	vva f
-1.810091	vva h
-2.348482	vva j
-1.821673	vva j^
-1.690904	vva k
-1.435632	vva k^
-1.746422	vva kh
-2.787815	vva khr
-2.185755	vva khw
-3.121845	vva kr
-2.813028	vva kw
-2.111121	vva l
-2.028147	vva m
-1.649512	vva m^
-2.185755	vva n
-0.6009994	vva n^
-2.787815	vva ng
-0.4313107	vva ng^
-2.047452	vva p
-2.389874	vva p^
-2.009663	vva ph
-2.047452	vva phl
-3.121845	vva phr
-3.121845	vva pl
-2.213783	vva pr
-1.394239	vva r
-1.927477	vva s
-2.159426	vva t
-2.310693	vva t^
-1.626447	vva th
-1.476061	vva w
-1.682304	vva z
-2.204482	w @
-1.584693	w @@
-0.4755871	w a
-0.4753169	w aa
-2.982633	w e
-1.239123	w ee
-0.7496369	w i
-1.849094	w ii
-2.250239	w iia
-1.806542	w o
-3.413573	w oo
-2.03815	w qq
-2.301392	w u
-3.413573	w uu
-1.94124	w xx
-1.007293	w^ </s>
-1.948804	w^ b
-1.362217	w^ c
-1.73396	w^ ch
-1.626585	w^ d
-2.568593	w^ f
-1.931771	w^ h
-1.698384	w^ j
-1.014306	w^ k
-2.948804	w^ k^
-1.253322	w^ kh
-2.460633	w^ khl
-2.568593	w^ khr
-2.392502	w^ khw
-2.744684	w^ kl
-2.744684	w^ kr
-3.045714	w^ kw
-1.652139	w^ l
-1.138572	w^ m
-2.249834	w^ m^
-0.9522924	w^ n
-2.471683	w^ ng
-2.693532	w^ ng^
-1.468797	w^ p
-1.495486	w^ ph
-2.501646	w^ phl
-2.568593	w^ phr
-2.36902	w^ pl
-2.460633	w^ pr
-0.8949576	w^ r
-1.54397	w^ s
-1.471683	w^ t
-1.208441	w^ th
-3.070927	w^ tr
-1.634937	w^ w
-1.533831	w^ z
-2.051679	x </s>
-1.814318	x b
-1.661708	x c
-1.979128	x ch
-1.979128	x d
-2.792041	x f
-2.01389	x h
-2.01389	x j
-1.101845	x k
-2.088855	x k^
-1.630673	x kh
-2.088855	x khr
-1.229748	x khw
-2.138829	x kl
-2.394101	x kr
-2.825042	x kw
-1.678098	x l
-1.247973	x m
-1.60171	x m^
-0.9438522	x n
-1.814318	x n^
-2.516225	x ng
-0.8097701	x ng^
-1.52487	x p
-2.825042	x p^
-1.344883	x ph
-2.825042	x phl
-2.088855	x phr
-2.516225	x pl
-1.61595	x pr
-1.513288	x r
-1.119943	x s
-1.71286	x t
-2.792041	x t^
-1.491011	x th
-2.825042	x tr
-1.731344	x w
-2.825042	x w^
-1.439859	x z
-2.026362	xx </s>
-2.341632	xx b
-1.777361	xx c
-2.262451	xx ch
-2.175301	xx d
-2.915664	xx f
-2.614634	xx h
-2.040602	xx j
-1.583225	xx k
-1.179267	xx k^
-1.553936	xx kh
-2.513507	xx khr
-2.341632	xx khw
-3.249694	xx kl
-2.517724	xx kr
-1.818754	xx l
-2.23897	xx l^
-1.93794	xx m
-2.040602	xx m^
-1.457026	xx n
-1.029173	xx n^
-2.330582	xx ng
-0.6597883	xx ng^
-1.949522	xx p
-1.128558	xx p^
-1.894474	xx ph
-3.216694	xx phr
-2.341632	xx pr
-2.055326	xx r
-1.949522	xx s
-1.90494	xx t
-1.344537	xx t^
-1.777361	xx th
-3.249694	xx thr
-1.90494	xx w
-0.6922975	xx w^
-2.287275	xx z
-3.525062	z @
-1.320335	z @@
-0.3746246	z a
-0.7245347	z aa
-1.858593	z e
-0.9722336	z ee
-1.685882	z i
-1.063117	z ii
-2.30173	z iia
-2.60595	z m
-1.706732	z o
-1.967017	z oo
-2.60595	z qq
-3.094122	z th
-1.72121	z u
-2.71391	z uua
-3.525062	z v
-1.472945	z vv
-2.838849	z vva
-2.890002	z x
-1.829304	z xx

\end\
